Language model created by QuickLM on Sun Oct 22 03:32:28 EDT 2017
Copyright (c) 1996-2010 Carnegie Mellon University and Alexander I. Rudnicky

The model is in standard ARPA format, designed by Doug Paul while he was at MITRE.

The code that was used to produce this language model is available in Open Source.
Please visit http://www.speech.cs.cmu.edu/tools/ for more information

The (fixed) discount mass is 0.5. The backoffs are computed using the ratio method.
This model based on a corpus of 13 sentences and 28 words

\data\
ngram 1=28
ngram 2=47
ngram 3=49

\1-grams:
-1.1461 </s> -0.3010
-1.1461 <s> -0.2341
-1.9590 A -0.2962
-1.9590 ALOHA -0.2688
-2.2601 AM -0.2986
-2.2601 AROUND -0.2986
-1.9590 BITE -0.2688
-1.6580 CAN -0.2840
-1.9590 DO -0.2840
-1.9590 EAT -0.2611
-1.7830 FIND -0.2914
-1.4819 FOOD -0.2558
-1.7830 GET -0.2865
-2.2601 HERE -0.2688
-1.9590 HOW -0.2962
-2.2601 HUNGRY -0.2688
-1.4150 I -0.2840
-1.6580 IS -0.2765
-2.2601 ME -0.2688
-2.2601 NEAR -0.2986
-1.7830 NEARBY -0.2688
-1.9590 QUICK -0.2962
-2.2601 SOME -0.2865
-2.2601 SOMETHING -0.2914
-1.9590 THERE -0.2765
-1.6580 TO -0.2765
-2.2601 WHAT -0.2914
-1.4819 WHERE -0.2815

\2-grams:
-1.1139 <s> FOOD -0.2218
-1.1139 <s> HOW 0.0000
-1.4150 <s> I -0.2688
-1.4150 <s> IS -0.1761
-1.4150 <s> WHAT 0.0000
-0.6368 <s> WHERE 0.0000
-0.3010 A QUICK 0.0000
-0.3010 ALOHA </s> -0.3010
-0.3010 AM HUNGRY 0.0000
-0.3010 AROUND HERE 0.0000
-0.3010 BITE </s> -0.3010
-0.3010 CAN I -0.0580
-0.3010 DO I -0.1963
-0.6021 EAT </s> -0.3010
-0.6021 EAT NEARBY 0.0000
-0.7782 FIND A 0.0000
-0.7782 FIND SOME 0.0000
-0.7782 FIND SOMETHING 0.0000
-0.7782 FOOD </s> -0.3010
-1.0792 FOOD AROUND 0.0000
-1.0792 FOOD NEAR 0.0000
-0.7782 FOOD NEARBY 0.0000
-0.7782 GET A 0.0000
-0.4771 GET TO -0.1761
-0.3010 HERE </s> -0.3010
-0.3010 HOW DO 0.0000
-0.3010 HUNGRY </s> -0.3010
-1.1461 I AM 0.0000
-0.6690 I FIND 0.0000
-0.6690 I GET 0.0000
-0.9031 IS ALOHA 0.0000
-0.9031 IS FOOD -0.2218
-0.6021 IS THERE 0.0000
-0.3010 ME </s> -0.3010
-0.3010 NEAR ME 0.0000
-0.3010 NEARBY </s> -0.3010
-0.3010 QUICK BITE 0.0000
-0.3010 SOME FOOD -0.2218
-0.3010 SOMETHING TO -0.1761
-0.6021 THERE FOOD -0.2218
-0.6021 THERE TO -0.1761
-0.9031 TO ALOHA 0.0000
-0.6021 TO EAT 0.0000
-0.9031 TO FOOD -0.2218
-0.3010 WHAT IS -0.1761
-0.4771 WHERE CAN 0.0000
-0.7782 WHERE IS -0.1761

\3-grams:
-0.6021 <s> FOOD AROUND
-0.6021 <s> FOOD NEAR
-0.3010 <s> HOW DO
-0.3010 <s> I AM
-0.3010 <s> IS THERE
-0.3010 <s> WHAT IS
-0.4771 <s> WHERE CAN
-0.7782 <s> WHERE IS
-0.3010 A QUICK BITE
-0.3010 AM HUNGRY </s>
-0.3010 AROUND HERE </s>
-0.4260 CAN I FIND
-0.9031 CAN I GET
-0.3010 DO I GET
-0.3010 EAT NEARBY </s>
-0.3010 FIND A QUICK
-0.3010 FIND SOME FOOD
-0.3010 FIND SOMETHING TO
-0.3010 FOOD AROUND HERE
-0.3010 FOOD NEAR ME
-0.3010 FOOD NEARBY </s>
-0.3010 GET A QUICK
-0.6021 GET TO ALOHA
-0.6021 GET TO FOOD
-0.3010 HOW DO I
-0.3010 I AM HUNGRY
-0.7782 I FIND A
-0.7782 I FIND SOME
-0.7782 I FIND SOMETHING
-0.7782 I GET A
-0.4771 I GET TO
-0.3010 IS ALOHA </s>
-0.3010 IS FOOD </s>
-0.6021 IS THERE FOOD
-0.6021 IS THERE TO
-0.3010 NEAR ME </s>
-0.3010 QUICK BITE </s>
-0.3010 SOME FOOD NEARBY
-0.3010 SOMETHING TO EAT
-0.3010 THERE FOOD NEARBY
-0.3010 THERE TO EAT
-0.3010 TO ALOHA </s>
-0.6021 TO EAT </s>
-0.6021 TO EAT NEARBY
-0.3010 TO FOOD </s>
-0.3010 WHAT IS THERE
-0.3010 WHERE CAN I
-0.6021 WHERE IS ALOHA
-0.6021 WHERE IS FOOD

\end\
