Language model created by QuickLM on Sun Oct 22 04:27:24 EDT 2017
Copyright (c) 1996-2010 Carnegie Mellon University and Alexander I. Rudnicky

The model is in standard ARPA format, designed by Doug Paul while he was at MITRE.

The code that was used to produce this language model is available in Open Source.
Please visit http://www.speech.cs.cmu.edu/tools/ for more information

The (fixed) discount mass is 0.5. The backoffs are computed using the ratio method.
This model based on a corpus of 17 sentences and 33 words

\data\
ngram 1=33
ngram 2=56
ngram 3=55

\1-grams:
-1.0918 </s> -0.3010
-1.0918 <s> -0.2341
-2.0212 A -0.2969
-2.0212 ALOHA -0.2644
-2.3222 AM -0.2990
-2.3222 AROUND -0.2990
-2.3222 BEEP -0.2644
-2.0212 BITE -0.2644
-2.3222 BLUE -0.2644
-1.7202 CAN -0.2863
-2.0212 DO -0.2863
-2.0212 EAT -0.2576
-1.8451 FIND -0.2927
-1.5441 FOOD -0.2530
-1.8451 GET -0.2884
-2.3222 HERE -0.2644
-2.0212 HOW -0.2969
-2.3222 HUNGRY -0.2644
-1.4771 I -0.2863
-1.7202 IS -0.2798
-2.3222 MATRIX -0.2644
-2.3222 ME -0.2644
-2.3222 NEAR -0.2990
-1.8451 NEARBY -0.2644
-2.3222 ORANGE -0.2644
-2.0212 QUICK -0.2969
-2.0212 SHINE -0.2969
-2.3222 SOME -0.2884
-2.3222 SOMETHING -0.2927
-2.0212 THERE -0.2798
-1.7202 TO -0.2798
-2.3222 WHAT -0.2927
-1.5441 WHERE -0.2842

\2-grams:
-1.5315 <s> BEEP 0.0000
-1.2304 <s> FOOD -0.2218
-1.2304 <s> HOW 0.0000
-1.5315 <s> I -0.2688
-1.5315 <s> IS -0.1761
-1.5315 <s> MATRIX 0.0000
-1.2304 <s> SHINE 0.0000
-1.5315 <s> WHAT 0.0000
-0.7533 <s> WHERE 0.0000
-0.3010 A QUICK 0.0000
-0.3010 ALOHA </s> -0.3010
-0.3010 AM HUNGRY 0.0000
-0.3010 AROUND HERE 0.0000
-0.3010 BEEP </s> -0.3010
-0.3010 BITE </s> -0.3010
-0.3010 BLUE </s> -0.3010
-0.3010 CAN I -0.0580
-0.3010 DO I -0.1963
-0.6021 EAT </s> -0.3010
-0.6021 EAT NEARBY 0.0000
-0.7782 FIND A 0.0000
-0.7782 FIND SOME 0.0000
-0.7782 FIND SOMETHING 0.0000
-0.7782 FOOD </s> -0.3010
-1.0792 FOOD AROUND 0.0000
-1.0792 FOOD NEAR 0.0000
-0.7782 FOOD NEARBY 0.0000
-0.7782 GET A 0.0000
-0.4771 GET TO -0.1761
-0.3010 HERE </s> -0.3010
-0.3010 HOW DO 0.0000
-0.3010 HUNGRY </s> -0.3010
-1.1461 I AM 0.0000
-0.6690 I FIND 0.0000
-0.6690 I GET 0.0000
-0.9031 IS ALOHA 0.0000
-0.9031 IS FOOD -0.2218
-0.6021 IS THERE 0.0000
-0.3010 MATRIX </s> -0.3010
-0.3010 ME </s> -0.3010
-0.3010 NEAR ME 0.0000
-0.3010 NEARBY </s> -0.3010
-0.3010 ORANGE </s> -0.3010
-0.3010 QUICK BITE 0.0000
-0.6021 SHINE BLUE 0.0000
-0.6021 SHINE ORANGE 0.0000
-0.3010 SOME FOOD -0.2218
-0.3010 SOMETHING TO -0.1761
-0.6021 THERE FOOD -0.2218
-0.6021 THERE TO -0.1761
-0.9031 TO ALOHA 0.0000
-0.6021 TO EAT 0.0000
-0.9031 TO FOOD -0.2218
-0.3010 WHAT IS -0.1761
-0.4771 WHERE CAN 0.0000
-0.7782 WHERE IS -0.1761

\3-grams:
-0.3010 <s> BEEP </s>
-0.6021 <s> FOOD AROUND
-0.6021 <s> FOOD NEAR
-0.3010 <s> HOW DO
-0.3010 <s> I AM
-0.3010 <s> IS THERE
-0.3010 <s> MATRIX </s>
-0.6021 <s> SHINE BLUE
-0.6021 <s> SHINE ORANGE
-0.3010 <s> WHAT IS
-0.4771 <s> WHERE CAN
-0.7782 <s> WHERE IS
-0.3010 A QUICK BITE
-0.3010 AM HUNGRY </s>
-0.3010 AROUND HERE </s>
-0.4260 CAN I FIND
-0.9031 CAN I GET
-0.3010 DO I GET
-0.3010 EAT NEARBY </s>
-0.3010 FIND A QUICK
-0.3010 FIND SOME FOOD
-0.3010 FIND SOMETHING TO
-0.3010 FOOD AROUND HERE
-0.3010 FOOD NEAR ME
-0.3010 FOOD NEARBY </s>
-0.3010 GET A QUICK
-0.6021 GET TO ALOHA
-0.6021 GET TO FOOD
-0.3010 HOW DO I
-0.3010 I AM HUNGRY
-0.7782 I FIND A
-0.7782 I FIND SOME
-0.7782 I FIND SOMETHING
-0.7782 I GET A
-0.4771 I GET TO
-0.3010 IS ALOHA </s>
-0.3010 IS FOOD </s>
-0.6021 IS THERE FOOD
-0.6021 IS THERE TO
-0.3010 NEAR ME </s>
-0.3010 QUICK BITE </s>
-0.3010 SHINE BLUE </s>
-0.3010 SHINE ORANGE </s>
-0.3010 SOME FOOD NEARBY
-0.3010 SOMETHING TO EAT
-0.3010 THERE FOOD NEARBY
-0.3010 THERE TO EAT
-0.3010 TO ALOHA </s>
-0.6021 TO EAT </s>
-0.6021 TO EAT NEARBY
-0.3010 TO FOOD </s>
-0.3010 WHAT IS THERE
-0.3010 WHERE CAN I
-0.6021 WHERE IS ALOHA
-0.6021 WHERE IS FOOD

\end\
